[array([ 0.0430272 ,  0.01054065, -0.04463515, -0.00313248, -0.00462582,
       -0.01515214,  0.08084651,  0.00391546,  0.01227439, -0.06029519,
        0.0157619 , -0.00521616,  0.05214677, -0.00617083,  0.00095663,
        0.00082804,  0.11994669, -0.01895176,  0.03203443,  0.00760523,
        0.0594822 , -0.05170907,  0.08588402, -0.01774346,  0.07982065,
        0.02838341, -0.06259048,  0.13308781,  0.01367391,  0.02969349,
       -0.07204322, -0.02317254,  0.09323115,  0.00742003,  0.01861859,
        0.07739497,  0.07116984,  0.02387986,  0.02228627,  0.07047587,
       -0.06695089, -0.02400556,  0.00066298,  0.03122562, -0.03042706,
        0.04474152,  0.02474245,  0.08850066,  0.06017294,  0.06238973]), array([ 0.05522686,  0.0106029 , -0.04361393,  0.0081724 ,  0.00760476,
       -0.00044298,  0.09953712,  0.01051865,  0.02705472, -0.06197527,
        0.00615652,  0.01082761,  0.07743796, -0.00580241, -0.03172838,
       -0.01862357,  0.17610962, -0.02085095,  0.03025969,  0.02890671,
        0.01423438, -0.02000022,  0.05184929, -0.01336927,  0.11096141,
        0.0323372 , -0.04641457,  0.09685886,  0.01326666,  0.03961972,
       -0.06719793, -0.03284482,  0.14523433,  0.01174575,  0.02101252,
        0.04837922,  0.08341432, -0.02080614, -0.01071214,  0.06109971,
       -0.04672355, -0.01212157, -0.00523678,  0.03344267, -0.02982384,
        0.04680948,  0.02421332,  0.04531808,  0.02602062,  0.03405523]), array([ 0.02701638,  0.00519591, -0.02174911,  0.00905179,  0.00890764,
       -0.00132292,  0.08077062,  0.00647884,  0.03145992, -0.06317397,
        0.00329848,  0.01313141,  0.06297897, -0.00634997, -0.04368611,
       -0.03069498,  0.22621626, -0.00704971,  0.04467055,  0.03758432,
        0.0386166 , -0.02830022,  0.02308971,  0.02666418,  0.12331918,
        0.04155315, -0.04672531,  0.10485213, -0.00601982,  0.04178813,
       -0.06602105, -0.03974381,  0.15967255,  0.00891671,  0.0163125 ,
        0.03203556,  0.07986078, -0.03055199, -0.01561116,  0.05293984,
       -0.04524159, -0.01530626, -0.00924191,  0.06305614, -0.02918858,
        0.05465251,  0.02757391,  0.04320247,  0.01953927, -0.00842796]), array([ 0.00666433, -0.00233827, -0.02829883,  0.00843294,  0.0206171 ,
       -0.00723156,  0.08752226,  0.00197683,  0.04767567, -0.04744559,
        0.00248057, -0.0008427 ,  0.06386472, -0.01299089, -0.04285571,
       -0.05248965,  0.24978994, -0.00587629,  0.06313219,  0.05122779,
        0.10469994, -0.0932469 ,  0.02496227,  0.03821406,  0.09978109,
        0.0282975 , -0.00788886,  0.09543791,  0.01089812,  0.02882686,
       -0.07704281, -0.04867653,  0.15493352,  0.00412579,  0.00964587,
        0.02216134,  0.07614311, -0.01588379,  0.00661152,  0.0412735 ,
       -0.05045593, -0.01179326, -0.01228419,  0.04816213, -0.01210789,
        0.03707983,  0.01900264,  0.03047194,  0.03678951,  0.00884685]), array([ 0.01049024,  0.0015948 , -0.04143704, -0.00096245,  0.02109261,
       -0.0086757 ,  0.07955691,  0.00513317,  0.03755036, -0.07132851,
        0.00454809,  0.01040668,  0.05813062,  0.0075821 , -0.04315536,
       -0.06384986,  0.29006082,  0.00225309,  0.04379208,  0.04085678,
        0.06793482, -0.03611149,  0.05636755,  0.08142934,  0.10656031,
        0.0192221 ,  0.00668951,  0.08195019,  0.00107496,  0.03677137,
       -0.08613286, -0.07377568,  0.16814968,  0.00159914,  0.00831177,
       -0.0120293 ,  0.04100986, -0.00252191,  0.01057331,  0.03823206,
       -0.01954745, -0.02556415, -0.00422294,  0.05817838, -0.01706993,
        0.04272228,  0.00622788,  0.03166494,  0.03278353, -0.00411666]), array([-0.00696022,  0.02123707, -0.06321201,  0.00971204,  0.05174275,
       -0.0163149 ,  0.11442527,  0.0029295 ,  0.09387322, -0.07567488,
        0.02234811,  0.02248248,  0.07973676, -0.01329271, -0.08634157,
       -0.05059214,  0.5918146 , -0.03405159,  0.05679995,  0.00879378,
       -0.03327311,  0.05990794,  0.03513592,  0.0765515 ,  0.07453629,
        0.01725488, -0.00162457,  0.09315968, -0.00264597,  0.01621658,
       -0.052463  , -0.06109798,  0.10916792,  0.00875075,  0.01688917,
       -0.09093288,  0.04390118, -0.01944341,  0.01196135, -0.00864166,
       -0.0601618 ,  0.02211357,  0.00125672,  0.05831292, -0.00253927,
        0.00153818,  0.00900405, -0.08650933,  0.05067551, -0.01645661]), array([ 7.07042703e-03,  3.01278797e-02, -2.58416548e-02,  8.21643039e-03,
        2.99270938e-02, -9.01136702e-04,  4.77941782e-02, -2.65065526e-02,
        5.68209488e-02, -4.85167517e-02,  2.11390175e-02,  1.16648265e-02,
        1.43648478e-02, -1.88159779e-02, -4.86713926e-02, -4.69872344e-02,
        8.35835791e-01, -1.66687316e-02,  3.30639786e-02,  1.35226483e-02,
       -2.27507644e-02, -7.12196173e-06, -5.42387424e-03,  1.05543302e-01,
        1.13650985e-02,  3.28450267e-02,  4.31339147e-02,  3.00126712e-02,
       -1.03578029e-02, -6.65463226e-03, -2.59185183e-03, -3.07465596e-02,
        7.53865899e-02,  1.06275980e-02,  1.01978452e-02, -7.00316167e-02,
        2.15900092e-02, -2.24606878e-02,  6.04895637e-03,  6.71842537e-04,
       -4.76180538e-02,  1.76455095e-02,  1.63732430e-02,  4.29557480e-02,
       -3.09701125e-03,  1.63402430e-02, -2.06259198e-02, -6.93283822e-02,
        3.93727969e-02, -4.50547510e-02]), array([ 1.42418215e-02,  9.94827291e-04, -3.69020973e-04,  1.41659316e-02,
        4.26158610e-04, -6.72183065e-03,  7.99430184e-02, -2.80813789e-02,
        3.50320464e-02, -3.71766625e-02, -1.67039853e-03,  2.59838995e-02,
        2.72037999e-02, -1.89905163e-02, -4.78596109e-02, -3.43967948e-02,
        9.43924962e-01, -2.46327166e-02,  2.21014727e-02,  2.09506229e-04,
        7.20418229e-02, -6.78320250e-02, -2.53273739e-02,  4.13321108e-02,
       -3.16108087e-03,  5.03692385e-02,  4.23338569e-02,  2.50530201e-02,
       -1.47951587e-02, -1.79607040e-02,  2.92522818e-02,  5.62437753e-03,
        3.78861612e-02,  7.62089016e-03,  1.67774350e-02, -4.39046126e-02,
        1.10711812e-02, -1.70927724e-02, -3.24754422e-03,  2.21066249e-03,
       -2.29787731e-02,  5.63404881e-04,  1.44363124e-02,  2.39617139e-02,
       -1.70755388e-02,  7.08879383e-03, -3.24363596e-02, -4.99516452e-02,
        5.17985401e-03, -4.13679922e-02]), array([ 1.51435337e-02,  6.72507094e-03,  2.52590063e-03, -7.10014411e-03,
       -3.86899810e-03,  6.00119034e-03,  5.82491717e-02, -2.38153396e-02,
        3.60742702e-02, -4.93995203e-02, -5.36425929e-03,  3.35512142e-02,
        4.53746779e-02, -4.27894447e-03, -6.17458659e-02, -1.93407340e-02,
        9.27455034e-01, -2.58948675e-02,  1.92984362e-02, -2.49444984e-03,
        3.12931109e-02, -2.32506890e-02, -2.96050295e-02,  4.68447308e-02,
        1.01398133e-02,  4.83317900e-02,  3.19370121e-02,  2.89678588e-02,
       -1.09497223e-02, -3.30219587e-02,  1.97761259e-02,  5.02340989e-04,
        3.85906795e-02,  6.53482104e-03,  7.74228147e-03, -4.45527333e-02,
        1.75304118e-02, -1.48417633e-02, -1.48344463e-03, -1.71130529e-03,
       -2.03172642e-02,  1.59808196e-02,  1.69072868e-02,  2.07757656e-02,
       -2.49925458e-02,  8.63873828e-03, -2.85545629e-02, -2.97820951e-02,
       -1.27731862e-03, -3.32485311e-02]), array([ 2.05226743e-02,  9.11505055e-03, -1.76614619e-02, -1.89570145e-02,
       -1.53605255e-02, -4.29481402e-03,  6.57384154e-02, -9.36226793e-03,
        2.08588499e-02, -6.12760412e-02, -8.33827729e-03,  4.11112820e-02,
        5.24294683e-02, -8.64955969e-03, -7.38920946e-02, -3.36291747e-02,
        9.48869873e-01, -1.58372594e-02,  2.28580206e-02, -2.14239456e-02,
        1.07368892e-01, -1.01824014e-01, -3.82982825e-02,  1.72054931e-02,
        1.82729198e-02,  6.10969823e-02,  5.75589667e-02,  2.29065590e-02,
       -2.29309946e-02, -1.64681840e-02,  3.83794361e-02,  3.49048654e-02,
        2.21241430e-02, -8.87859296e-04,  2.76736931e-03, -3.53093307e-02,
        1.17538785e-02, -1.90843482e-02,  6.73430036e-03,  6.14368032e-03,
       -1.59712792e-02,  9.96002134e-03,  1.96158100e-02,  1.65423968e-02,
       -7.72478670e-03,  9.99951917e-03, -3.86931637e-02, -2.63310799e-02,
       -1.27494629e-02, -1.98835956e-02])]